<?xml version="1.0"?>
<opencv_storage>
<cascade>
  <stageType>BOOST</stageType>
  <featureType>HAAR</featureType>
  <height>24</height>
  <width>48</width>
  <stageParams>
    <boostType>GAB</boostType>
    <minHitRate>9.9500000476837158e-01</minHitRate>
    <maxFalseAlarm>5.0000000000000000e-01</maxFalseAlarm>
    <weightTrimRate>9.4999999999999996e-01</weightTrimRate>
    <maxDepth>1</maxDepth>
    <maxWeakCount>100</maxWeakCount></stageParams>
  <featureParams>
    <maxCatCount>0</maxCatCount>
    <featSize>1</featSize>
    <mode>BASIC</mode></featureParams>
  <stageNum>10</stageNum>
  <stages>
    <!-- stage 0 -->
    <_>
      <maxWeakCount>4</maxWeakCount>
      <stageThreshold>-1.0812615156173706e+00</stageThreshold>
      <weakClassifiers>
        <_>
          <internalNodes>
            0 -1 15 3.5693340003490448e-02</internalNodes>
          <leafValues>
            -7.5000000000000000e-01 7.8688526153564453e-01</leafValues></_>
        <_>
          <internalNodes>
            0 -1 3 -8.3453375846147537e-03</internalNodes>
          <leafValues>
            6.9091099500656128e-01 -6.5270942449569702e-01</leafValues></_>
        <_>
          <internalNodes>
            0 -1 61 1.5732925385236740e-02</internalNodes>
          <leafValues>
            -4.5758765935897827e-01 7.9418838024139404e-01</leafValues></_>
        <_>
          <internalNodes>
            0 -1 23 -4.3112500570714474e-03</internalNodes>
          <leafValues>
            7.7903550863265991e-01 -3.8306513428688049e-01</leafValues></_></weakClassifiers></_>
    <!-- stage 1 -->
    <_>
      <maxWeakCount>6</maxWeakCount>
      <stageThreshold>-1.5405499935150146e+00</stageThreshold>
      <weakClassifiers>
        <_>
          <internalNodes>
            0 -1 31 2.6419892907142639e-02</internalNodes>
          <leafValues>
            -7.3966944217681885e-01 6.9379842281341553e-01</leafValues></_>
        <_>
          <internalNodes>
            0 -1 11 -4.0955111384391785e-02</internalNodes>
          <leafValues>
            5.9624254703521729e-01 -5.9079337120056152e-01</leafValues></_>
        <_>
          <internalNodes>
            0 -1 53 -4.0332642383873463e-03</internalNodes>
          <leafValues>
            5.6250315904617310e-01 -5.6276649236679077e-01</leafValues></_>
        <_>
          <internalNodes>
            0 -1 22 -7.9879444092512131e-03</internalNodes>
          <leafValues>
            6.5493607521057129e-01 -3.5942587256431580e-01</leafValues></_>
        <_>
          <internalNodes>
            0 -1 45 -4.9270212184637785e-04</internalNodes>
          <leafValues>
            -8.5801416635513306e-01 2.7290216088294983e-01</leafValues></_>
        <_>
          <internalNodes>
            0 -1 59 7.1099670603871346e-03</internalNodes>
          <leafValues>
            -5.4343533515930176e-01 4.3920296430587769e-01</leafValues></_></weakClassifiers></_>
    <!-- stage 2 -->
    <_>
      <maxWeakCount>5</maxWeakCount>
      <stageThreshold>-1.5872086286544800e+00</stageThreshold>
      <weakClassifiers>
        <_>
          <internalNodes>
            0 -1 18 -3.0792986974120140e-02</internalNodes>
          <leafValues>
            7.2307693958282471e-01 -4.6229508519172668e-01</leafValues></_>
        <_>
          <internalNodes>
            0 -1 5 -1.1498862877488136e-02</internalNodes>
          <leafValues>
            5.0654697418212891e-01 -5.6437635421752930e-01</leafValues></_>
        <_>
          <internalNodes>
            0 -1 48 6.1315596103668213e-03</internalNodes>
          <leafValues>
            -6.1474245786666870e-01 4.7241151332855225e-01</leafValues></_>
        <_>
          <internalNodes>
            0 -1 28 -3.1277320813387632e-03</internalNodes>
          <leafValues>
            7.9775184392929077e-01 -3.3970701694488525e-01</leafValues></_>
        <_>
          <internalNodes>
            0 -1 54 2.3074718192219734e-03</internalNodes>
          <leafValues>
            -7.4354654550552368e-01 3.4486472606658936e-01</leafValues></_></weakClassifiers></_>
    <!-- stage 3 -->
    <_>
      <maxWeakCount>6</maxWeakCount>
      <stageThreshold>-1.4409366846084595e+00</stageThreshold>
      <weakClassifiers>
        <_>
          <internalNodes>
            0 -1 9 -1.2858495116233826e-01</internalNodes>
          <leafValues>
            5.1111114025115967e-01 -6.0000002384185791e-01</leafValues></_>
        <_>
          <internalNodes>
            0 -1 12 -5.8209143579006195e-02</internalNodes>
          <leafValues>
            7.8952366113662720e-01 -4.1177487373352051e-01</leafValues></_>
        <_>
          <internalNodes>
            0 -1 35 7.2186728939414024e-03</internalNodes>
          <leafValues>
            -4.3457800149917603e-01 6.0041201114654541e-01</leafValues></_>
        <_>
          <internalNodes>
            0 -1 52 5.6418990716338158e-03</internalNodes>
          <leafValues>
            -3.1640300154685974e-01 7.7702981233596802e-01</leafValues></_>
        <_>
          <internalNodes>
            0 -1 8 -6.1677489429712296e-04</internalNodes>
          <leafValues>
            4.4574779272079468e-01 -5.4746454954147339e-01</leafValues></_>
        <_>
          <internalNodes>
            0 -1 42 6.4820639789104462e-02</internalNodes>
          <leafValues>
            -3.3201476931571960e-01 6.6267234086990356e-01</leafValues></_></weakClassifiers></_>
    <!-- stage 4 -->
    <_>
      <maxWeakCount>7</maxWeakCount>
      <stageThreshold>-1.5091342926025391e+00</stageThreshold>
      <weakClassifiers>
        <_>
          <internalNodes>
            0 -1 63 4.1161067783832550e-03</internalNodes>
          <leafValues>
            -6.1520189046859741e-01 4.4732296466827393e-01</leafValues></_>
        <_>
          <internalNodes>
            0 -1 26 -4.4487584382295609e-03</internalNodes>
          <leafValues>
            7.4225205183029175e-01 -3.8608375191688538e-01</leafValues></_>
        <_>
          <internalNodes>
            0 -1 40 2.5059739127755165e-03</internalNodes>
          <leafValues>
            2.7914839982986450e-01 -8.6182612180709839e-01</leafValues></_>
        <_>
          <internalNodes>
            0 -1 44 -7.1808695793151855e-04</internalNodes>
          <leafValues>
            -8.4574353694915771e-01 2.7206441760063171e-01</leafValues></_>
        <_>
          <internalNodes>
            0 -1 51 2.7724080719053745e-03</internalNodes>
          <leafValues>
            -4.4126269221305847e-01 6.1754679679870605e-01</leafValues></_>
        <_>
          <internalNodes>
            0 -1 2 -1.6233637928962708e-02</internalNodes>
          <leafValues>
            6.1444240808486938e-01 -3.1630879640579224e-01</leafValues></_>
        <_>
          <internalNodes>
            0 -1 32 -4.4364817440509796e-02</internalNodes>
          <leafValues>
            6.5420871973037720e-01 -3.0148994922637939e-01</leafValues></_></weakClassifiers></_>
    <!-- stage 5 -->
    <_>
      <maxWeakCount>6</maxWeakCount>
      <stageThreshold>-8.7569111585617065e-01</stageThreshold>
      <weakClassifiers>
        <_>
          <internalNodes>
            0 -1 20 -3.7949737161397934e-03</internalNodes>
          <leafValues>
            5.5102038383483887e-01 -5.2941179275512695e-01</leafValues></_>
        <_>
          <internalNodes>
            0 -1 62 4.4521577656269073e-03</internalNodes>
          <leafValues>
            -5.3529417514801025e-01 5.0063794851303101e-01</leafValues></_>
        <_>
          <internalNodes>
            0 -1 34 -5.4264366626739502e-03</internalNodes>
          <leafValues>
            -9.0715396404266357e-01 2.2794368863105774e-01</leafValues></_>
        <_>
          <internalNodes>
            0 -1 13 4.7679780982434750e-03</internalNodes>
          <leafValues>
            -3.2771515846252441e-01 7.8771930932998657e-01</leafValues></_>
        <_>
          <internalNodes>
            0 -1 7 -2.7809315361082554e-03</internalNodes>
          <leafValues>
            5.7328855991363525e-01 -3.6470440030097961e-01</leafValues></_>
        <_>
          <internalNodes>
            0 -1 16 1.2580993771553040e-01</internalNodes>
          <leafValues>
            -2.8450226783752441e-01 7.8429311513900757e-01</leafValues></_></weakClassifiers></_>
    <!-- stage 6 -->
    <_>
      <maxWeakCount>7</maxWeakCount>
      <stageThreshold>-1.0898655652999878e+00</stageThreshold>
      <weakClassifiers>
        <_>
          <internalNodes>
            0 -1 21 -6.4582629129290581e-03</internalNodes>
          <leafValues>
            5.6306308507919312e-01 -4.4964027404785156e-01</leafValues></_>
        <_>
          <internalNodes>
            0 -1 60 2.6147123426198959e-02</internalNodes>
          <leafValues>
            -4.0548226237297058e-01 5.6250029802322388e-01</leafValues></_>
        <_>
          <internalNodes>
            0 -1 6 -4.3599018827080727e-03</internalNodes>
          <leafValues>
            3.3342078328132629e-01 -6.2365287542343140e-01</leafValues></_>
        <_>
          <internalNodes>
            0 -1 38 6.7052070517092943e-04</internalNodes>
          <leafValues>
            2.9317235946655273e-01 -8.4011429548263550e-01</leafValues></_>
        <_>
          <internalNodes>
            0 -1 56 -2.4295796174556017e-03</internalNodes>
          <leafValues>
            5.1338118314743042e-01 -4.0018931031227112e-01</leafValues></_>
        <_>
          <internalNodes>
            0 -1 41 6.9834827445447445e-04</internalNodes>
          <leafValues>
            2.0067635178565979e-01 -8.7285017967224121e-01</leafValues></_>
        <_>
          <internalNodes>
            0 -1 49 1.6985941911116242e-03</internalNodes>
          <leafValues>
            -5.5627918243408203e-01 3.2391712069511414e-01</leafValues></_></weakClassifiers></_>
    <!-- stage 7 -->
    <_>
      <maxWeakCount>8</maxWeakCount>
      <stageThreshold>-1.2008204460144043e+00</stageThreshold>
      <weakClassifiers>
        <_>
          <internalNodes>
            0 -1 29 -1.8008366227149963e-02</internalNodes>
          <leafValues>
            7.1608835458755493e-01 -3.3235725760459900e-01</leafValues></_>
        <_>
          <internalNodes>
            0 -1 27 -1.9940987695008516e-03</internalNodes>
          <leafValues>
            6.1774605512619019e-01 -3.8736155629158020e-01</leafValues></_>
        <_>
          <internalNodes>
            0 -1 17 -1.7913348972797394e-02</internalNodes>
          <leafValues>
            3.0672731995582581e-01 -6.4780938625335693e-01</leafValues></_>
        <_>
          <internalNodes>
            0 -1 19 -8.5497256368398666e-03</internalNodes>
          <leafValues>
            7.5558561086654663e-01 -2.9849481582641602e-01</leafValues></_>
        <_>
          <internalNodes>
            0 -1 47 -4.6565020456910133e-03</internalNodes>
          <leafValues>
            6.3345080614089966e-01 -2.5760328769683838e-01</leafValues></_>
        <_>
          <internalNodes>
            0 -1 37 -8.7994214845821261e-04</internalNodes>
          <leafValues>
            -7.9074823856353760e-01 1.9977794587612152e-01</leafValues></_>
        <_>
          <internalNodes>
            0 -1 0 7.6046760659664869e-04</internalNodes>
          <leafValues>
            -5.9667700529098511e-01 2.9369539022445679e-01</leafValues></_>
        <_>
          <internalNodes>
            0 -1 30 -1.4074672944843769e-03</internalNodes>
          <leafValues>
            2.2933249175548553e-01 -7.5322282314300537e-01</leafValues></_></weakClassifiers></_>
    <!-- stage 8 -->
    <_>
      <maxWeakCount>8</maxWeakCount>
      <stageThreshold>-1.5020337104797363e+00</stageThreshold>
      <weakClassifiers>
        <_>
          <internalNodes>
            0 -1 57 -2.9204492457211018e-03</internalNodes>
          <leafValues>
            6.9151669740676880e-01 -4.4026187062263489e-01</leafValues></_>
        <_>
          <internalNodes>
            0 -1 24 -5.9445025399327278e-03</internalNodes>
          <leafValues>
            6.3995528221130371e-01 -3.3382210135459900e-01</leafValues></_>
        <_>
          <internalNodes>
            0 -1 10 4.2164571583271027e-02</internalNodes>
          <leafValues>
            -5.4920774698257446e-01 3.9611613750457764e-01</leafValues></_>
        <_>
          <internalNodes>
            0 -1 1 -2.0513288676738739e-02</internalNodes>
          <leafValues>
            5.3933262825012207e-01 -3.7862893939018250e-01</leafValues></_>
        <_>
          <internalNodes>
            0 -1 64 8.5741067305207253e-03</internalNodes>
          <leafValues>
            -3.6516186594963074e-01 5.8994823694229126e-01</leafValues></_>
        <_>
          <internalNodes>
            0 -1 33 -4.5925695449113846e-03</internalNodes>
          <leafValues>
            -9.8132175207138062e-01 2.6390880346298218e-01</leafValues></_>
        <_>
          <internalNodes>
            0 -1 43 -2.0167214795947075e-02</internalNodes>
          <leafValues>
            5.5883044004440308e-01 -3.8956221938133240e-01</leafValues></_>
        <_>
          <internalNodes>
            0 -1 55 8.6511555127799511e-04</internalNodes>
          <leafValues>
            -2.8307518362998962e-01 6.0016375780105591e-01</leafValues></_></weakClassifiers></_>
    <!-- stage 9 -->
    <_>
      <maxWeakCount>9</maxWeakCount>
      <stageThreshold>-9.7121083736419678e-01</stageThreshold>
      <weakClassifiers>
        <_>
          <internalNodes>
            0 -1 50 5.7843001559376717e-03</internalNodes>
          <leafValues>
            -6.2962961196899414e-01 3.8263666629791260e-01</leafValues></_>
        <_>
          <internalNodes>
            0 -1 25 -5.2373497746884823e-03</internalNodes>
          <leafValues>
            6.8057209253311157e-01 -3.7368109822273254e-01</leafValues></_>
        <_>
          <internalNodes>
            0 -1 4 -4.2287488467991352e-03</internalNodes>
          <leafValues>
            4.3480297923088074e-01 -5.4920917749404907e-01</leafValues></_>
        <_>
          <internalNodes>
            0 -1 58 5.5831123609095812e-04</internalNodes>
          <leafValues>
            -3.2378274202346802e-01 6.3956665992736816e-01</leafValues></_>
        <_>
          <internalNodes>
            0 -1 39 4.9750213511288166e-03</internalNodes>
          <leafValues>
            -4.3395417928695679e-01 5.1242786645889282e-01</leafValues></_>
        <_>
          <internalNodes>
            0 -1 14 -5.7571721263229847e-03</internalNodes>
          <leafValues>
            8.4220582246780396e-01 -2.1096658706665039e-01</leafValues></_>
        <_>
          <internalNodes>
            0 -1 36 -4.8199747689068317e-03</internalNodes>
          <leafValues>
            6.5243613719940186e-01 -3.0000960826873779e-01</leafValues></_>
        <_>
          <internalNodes>
            0 -1 65 8.7603079155087471e-03</internalNodes>
          <leafValues>
            -2.8210467100143433e-01 6.5392589569091797e-01</leafValues></_>
        <_>
          <internalNodes>
            0 -1 46 -6.0067739104852080e-04</internalNodes>
          <leafValues>
            -7.5071305036544800e-01 2.8727647662162781e-01</leafValues></_></weakClassifiers></_></stages>
  <features>
    <_>
      <rects>
        <_>
          0 0 1 24 -1.</_>
        <_>
          0 12 1 12 2.</_></rects>
      <tilted>0</tilted></_>
    <_>
      <rects>
        <_>
          0 10 12 10 -1.</_>
        <_>
          0 10 6 5 2.</_>
        <_>
          6 15 6 5 2.</_></rects>
      <tilted>0</tilted></_>
    <_>
      <rects>
        <_>
          0 11 10 8 -1.</_>
        <_>
          0 11 5 4 2.</_>
        <_>
          5 15 5 4 2.</_></rects>
      <tilted>0</tilted></_>
    <_>
      <rects>
        <_>
          0 17 10 5 -1.</_>
        <_>
          5 17 5 5 2.</_></rects>
      <tilted>0</tilted></_>
    <_>
      <rects>
        <_>
          0 18 8 4 -1.</_>
        <_>
          4 18 4 4 2.</_></rects>
      <tilted>0</tilted></_>
    <_>
      <rects>
        <_>
          0 18 16 4 -1.</_>
        <_>
          8 18 8 4 2.</_></rects>
      <tilted>0</tilted></_>
    <_>
      <rects>
        <_>
          0 19 12 4 -1.</_>
        <_>
          6 19 6 4 2.</_></rects>
      <tilted>0</tilted></_>
    <_>
      <rects>
        <_>
          1 15 4 7 -1.</_>
        <_>
          3 15 2 7 2.</_></rects>
      <tilted>0</tilted></_>
    <_>
      <rects>
        <_>
          3 18 4 3 -1.</_>
        <_>
          5 18 2 3 2.</_></rects>
      <tilted>0</tilted></_>
    <_>
      <rects>
        <_>
          5 12 37 12 -1.</_>
        <_>
          5 16 37 4 3.</_></rects>
      <tilted>0</tilted></_>
    <_>
      <rects>
        <_>
          5 20 37 4 -1.</_>
        <_>
          5 22 37 2 2.</_></rects>
      <tilted>0</tilted></_>
    <_>
      <rects>
        <_>
          6 12 11 12 -1.</_>
        <_>
          6 16 11 4 3.</_></rects>
      <tilted>0</tilted></_>
    <_>
      <rects>
        <_>
          6 18 27 6 -1.</_>
        <_>
          6 20 27 2 3.</_></rects>
      <tilted>0</tilted></_>
    <_>
      <rects>
        <_>
          7 15 6 4 -1.</_>
        <_>
          7 15 3 2 2.</_>
        <_>
          10 17 3 2 2.</_></rects>
      <tilted>0</tilted></_>
    <_>
      <rects>
        <_>
          7 20 6 3 -1.</_>
        <_>
          7 21 6 1 3.</_></rects>
      <tilted>0</tilted></_>
    <_>
      <rects>
        <_>
          7 20 34 4 -1.</_>
        <_>
          7 22 34 2 2.</_></rects>
      <tilted>0</tilted></_>
    <_>
      <rects>
        <_>
          8 9 32 9 -1.</_>
        <_>
          8 12 32 3 3.</_></rects>
      <tilted>0</tilted></_>
    <_>
      <rects>
        <_>
          8 11 9 12 -1.</_>
        <_>
          8 15 9 4 3.</_></rects>
      <tilted>0</tilted></_>
    <_>
      <rects>
        <_>
          8 12 34 4 -1.</_>
        <_>
          8 14 34 2 2.</_></rects>
      <tilted>0</tilted></_>
    <_>
      <rects>
        <_>
          8 15 6 8 -1.</_>
        <_>
          10 15 2 8 3.</_></rects>
      <tilted>0</tilted></_>
    <_>
      <rects>
        <_>
          9 15 12 4 -1.</_>
        <_>
          9 15 6 2 2.</_>
        <_>
          15 17 6 2 2.</_></rects>
      <tilted>0</tilted></_>
    <_>
      <rects>
        <_>
          10 14 8 6 -1.</_>
        <_>
          10 14 4 3 2.</_>
        <_>
          14 17 4 3 2.</_></rects>
      <tilted>0</tilted></_>
    <_>
      <rects>
        <_>
          10 15 9 5 -1.</_>
        <_>
          13 15 3 5 3.</_></rects>
      <tilted>0</tilted></_>
    <_>
      <rects>
        <_>
          10 15 8 4 -1.</_>
        <_>
          10 15 4 2 2.</_>
        <_>
          14 17 4 2 2.</_></rects>
      <tilted>0</tilted></_>
    <_>
      <rects>
        <_>
          10 17 9 3 -1.</_>
        <_>
          13 17 3 3 3.</_></rects>
      <tilted>0</tilted></_>
    <_>
      <rects>
        <_>
          11 11 1 9 -1.</_>
        <_>
          11 14 1 3 3.</_></rects>
      <tilted>0</tilted></_>
    <_>
      <rects>
        <_>
          11 15 6 4 -1.</_>
        <_>
          11 15 3 2 2.</_>
        <_>
          14 17 3 2 2.</_></rects>
      <tilted>0</tilted></_>
    <_>
      <rects>
        <_>
          11 17 4 3 -1.</_>
        <_>
          13 17 2 3 2.</_></rects>
      <tilted>0</tilted></_>
    <_>
      <rects>
        <_>
          12 13 1 6 -1.</_>
        <_>
          12 15 1 2 3.</_></rects>
      <tilted>0</tilted></_>
    <_>
      <rects>
        <_>
          12 20 26 3 -1.</_>
        <_>
          12 21 26 1 3.</_></rects>
      <tilted>0</tilted></_>
    <_>
      <rects>
        <_>
          14 9 2 12 -1.</_>
        <_>
          14 15 2 6 2.</_></rects>
      <tilted>0</tilted></_>
    <_>
      <rects>
        <_>
          14 20 25 4 -1.</_>
        <_>
          14 22 25 2 2.</_></rects>
      <tilted>0</tilted></_>
    <_>
      <rects>
        <_>
          15 15 11 9 -1.</_>
        <_>
          15 18 11 3 3.</_></rects>
      <tilted>0</tilted></_>
    <_>
      <rects>
        <_>
          16 13 10 4 -1.</_>
        <_>
          16 13 5 2 2.</_>
        <_>
          21 15 5 2 2.</_></rects>
      <tilted>0</tilted></_>
    <_>
      <rects>
        <_>
          16 13 12 4 -1.</_>
        <_>
          22 13 6 4 2.</_></rects>
      <tilted>0</tilted></_>
    <_>
      <rects>
        <_>
          16 16 28 4 -1.</_>
        <_>
          16 16 14 2 2.</_>
        <_>
          30 18 14 2 2.</_></rects>
      <tilted>0</tilted></_>
    <_>
      <rects>
        <_>
          18 18 13 3 -1.</_>
        <_>
          18 19 13 1 3.</_></rects>
      <tilted>0</tilted></_>
    <_>
      <rects>
        <_>
          19 16 6 3 -1.</_>
        <_>
          21 16 2 3 3.</_></rects>
      <tilted>0</tilted></_>
    <_>
      <rects>
        <_>
          19 17 6 2 -1.</_>
        <_>
          21 17 2 2 3.</_></rects>
      <tilted>0</tilted></_>
    <_>
      <rects>
        <_>
          21 6 20 6 -1.</_>
        <_>
          21 6 10 3 2.</_>
        <_>
          31 9 10 3 2.</_></rects>
      <tilted>0</tilted></_>
    <_>
      <rects>
        <_>
          22 16 6 6 -1.</_>
        <_>
          25 16 3 6 2.</_></rects>
      <tilted>0</tilted></_>
    <_>
      <rects>
        <_>
          22 17 6 1 -1.</_>
        <_>
          25 17 3 1 2.</_></rects>
      <tilted>0</tilted></_>
    <_>
      <rects>
        <_>
          23 7 19 12 -1.</_>
        <_>
          23 11 19 4 3.</_></rects>
      <tilted>0</tilted></_>
    <_>
      <rects>
        <_>
          23 8 14 10 -1.</_>
        <_>
          23 8 7 5 2.</_>
        <_>
          30 13 7 5 2.</_></rects>
      <tilted>0</tilted></_>
    <_>
      <rects>
        <_>
          23 15 4 3 -1.</_>
        <_>
          25 15 2 3 2.</_></rects>
      <tilted>0</tilted></_>
    <_>
      <rects>
        <_>
          24 16 4 3 -1.</_>
        <_>
          26 16 2 3 2.</_></rects>
      <tilted>0</tilted></_>
    <_>
      <rects>
        <_>
          26 22 6 2 -1.</_>
        <_>
          28 22 2 2 3.</_></rects>
      <tilted>0</tilted></_>
    <_>
      <rects>
        <_>
          28 17 9 4 -1.</_>
        <_>
          31 17 3 4 3.</_></rects>
      <tilted>0</tilted></_>
    <_>
      <rects>
        <_>
          28 20 6 4 -1.</_>
        <_>
          28 22 6 2 2.</_></rects>
      <tilted>0</tilted></_>
    <_>
      <rects>
        <_>
          29 19 16 5 -1.</_>
        <_>
          37 19 8 5 2.</_></rects>
      <tilted>0</tilted></_>
    <_>
      <rects>
        <_>
          30 20 5 4 -1.</_>
        <_>
          30 22 5 2 2.</_></rects>
      <tilted>0</tilted></_>
    <_>
      <rects>
        <_>
          31 15 6 4 -1.</_>
        <_>
          31 15 3 2 2.</_>
        <_>
          34 17 3 2 2.</_></rects>
      <tilted>0</tilted></_>
    <_>
      <rects>
        <_>
          33 17 6 3 -1.</_>
        <_>
          35 17 2 3 3.</_></rects>
      <tilted>0</tilted></_>
    <_>
      <rects>
        <_>
          34 11 3 6 -1.</_>
        <_>
          34 14 3 3 2.</_></rects>
      <tilted>0</tilted></_>
    <_>
      <rects>
        <_>
          34 16 14 7 -1.</_>
        <_>
          41 16 7 7 2.</_></rects>
      <tilted>0</tilted></_>
    <_>
      <rects>
        <_>
          34 17 3 3 -1.</_>
        <_>
          35 17 1 3 3.</_></rects>
      <tilted>0</tilted></_>
    <_>
      <rects>
        <_>
          35 13 1 6 -1.</_>
        <_>
          35 15 1 2 3.</_></rects>
      <tilted>0</tilted></_>
    <_>
      <rects>
        <_>
          35 15 8 4 -1.</_>
        <_>
          35 15 4 2 2.</_>
        <_>
          39 17 4 2 2.</_></rects>
      <tilted>0</tilted></_>
    <_>
      <rects>
        <_>
          35 17 3 2 -1.</_>
        <_>
          36 17 1 2 3.</_></rects>
      <tilted>0</tilted></_>
    <_>
      <rects>
        <_>
          37 18 10 6 -1.</_>
        <_>
          42 18 5 6 2.</_></rects>
      <tilted>0</tilted></_>
    <_>
      <rects>
        <_>
          38 6 10 16 -1.</_>
        <_>
          38 6 5 8 2.</_>
        <_>
          43 14 5 8 2.</_></rects>
      <tilted>0</tilted></_>
    <_>
      <rects>
        <_>
          38 10 10 10 -1.</_>
        <_>
          38 10 5 5 2.</_>
        <_>
          43 15 5 5 2.</_></rects>
      <tilted>0</tilted></_>
    <_>
      <rects>
        <_>
          38 18 10 2 -1.</_>
        <_>
          43 18 5 2 2.</_></rects>
      <tilted>0</tilted></_>
    <_>
      <rects>
        <_>
          39 18 8 4 -1.</_>
        <_>
          43 18 4 4 2.</_></rects>
      <tilted>0</tilted></_>
    <_>
      <rects>
        <_>
          40 15 8 3 -1.</_>
        <_>
          44 15 4 3 2.</_></rects>
      <tilted>0</tilted></_>
    <_>
      <rects>
        <_>
          42 14 6 6 -1.</_>
        <_>
          45 14 3 6 2.</_></rects>
      <tilted>0</tilted></_></features></cascade>
</opencv_storage>
